{"meta": {"dataset": "IntelliRehabDS (IRDS), Miron et al., Data 6(5):46, 2021", "source": "https://zenodo.org/record/4610859", "n_train_reps": 2062, "n_test_reps": 462, "split": "subject-wise (patients+controls stratified)", "features": ["rom_deg", "duration_s", "peak_vel", "mean_vel", "reversals_ps", "jerk_rms", "tremor_ratio", "t_peak_frac"], "label": "P(clinician labels the repetition as correctly executed)", "test_metrics": {"accuracy": 0.8073593073593074, "balanced_accuracy": 0.8147498375568551, "sensitivity": 0.8049382716049382, "specificity": 0.8245614035087719, "auc": 0.8868962529781244, "n": 462}, "train_metrics": {"accuracy": 0.8768186226964112, "balanced_accuracy": 0.8718066625791947, "sensitivity": 0.8809523809523809, "specificity": 0.8626609442060086, "auc": 0.9519533813073456, "n": 2062}}, "norm": {"mu": [44.175925115618064, 2.8404300032331076, 186.4406902115867, 35.8326855519356, 1.671386646494378, 18.203641586987985, 0.4148450315716085, 0.5135346588351413], "sigma": [38.25688566660155, 3.1211424341093745, 126.2400157832497, 36.167499567004654, 1.1990674014293818, 7.822477969029094, 0.10970674396786645, 0.24760742461201052]}, "W1": [[-1.8804200613152275, -0.2199135421102135, 0.24754121831903214, -0.7133600803492988, 2.180466105067413, 1.1058476745680033, 0.5176544106485667, 2.07595863916159, -2.176926542900681, -0.9415320068286005, 1.687085265970206, -1.721697131456489, 1.9519228722522113, -1.6944187866224298, -2.3520138040606295, 1.0485001525257478], [-0.5244007516290994, -0.8629562483511477, -0.5210175065107708, -1.108933304586155, -3.1816338397668993, -0.4714200682317505, -2.1921043522174117, 0.1844412000811288, -1.3242498334379451, 0.48442970995312284, -4.309926743950085, -0.29206214347728304, -0.45823859079986456, 0.5086571617226956, -0.19403166818338852, -0.7177217384791813], [-1.4130730461771817, -0.3887120473575799, -1.6652543886126794, 0.024109471342369154, -1.1528104698763484, 0.31387963637432825, -0.7825507112011627, 0.8520958482318932, 0.14547763089681776, 0.42649113871760674, -1.4174162405848, -0.17147242161777285, 1.3591532274554723, -2.6674134844307904, 0.125009176142179, 2.7192813418826143], [-0.32309978258530014, 1.137380870670228, 2.8500810860832426, -0.21381008103168125, -2.126188152799765, 1.2456251264223694, -0.4303934643296631, -0.46655223636790744, -0.9655752250035881, 0.7222194580005781, 1.1883945378061236, 0.7160066850481633, -2.041715438039216, 2.047256527929383, -1.4431758322420003, -2.2987922637479], [0.6374062166813448, 0.5896989744637038, 0.05251834034827135, 0.4183255692557335, -0.7633019619355523, 0.09625733072576621, 0.3245313947969099, -0.4175206247893848, -1.3785076278186106, -0.8054991217947806, 0.5869995856733106, 0.8062641299620471, 0.6408415901187139, 0.4827826570754156, 1.4910350457369759, 0.45652377199111654], [-0.7141893727466005, -0.8181145560863732, 0.7976783202072797, 1.671797491592246, -0.7452793118214378, -1.3817517948286795, -0.9805264478162768, 1.277962491926528, 0.8655514819746923, -2.4384649339355566, 0.25478375680464815, 1.3066415842774601, -0.8826758554883856, -1.053557205548074, 0.06927215621504651, 1.6540018674445527], [-0.36437272490346895, -1.9730110439198487, -3.7918760420993407, -2.1245160321433336, -0.2476612804445083, -2.3030453986378223, -0.4706927178073831, -0.26759811074516104, -0.560545117954454, 1.496343760324761, 1.9683541136174187, -1.465307222311319, 0.8223953302466479, 1.5972235240280708, -0.37475411300054395, -0.19357620665708525], [-1.060612121690662, 1.2865141628414938, 0.4954313999084756, -0.00980928528711636, 1.4919829825961632, -0.5934841713459517, 0.11534902038937735, 0.027705907326328626, 0.18993004479329942, 2.3598230104516005, -1.7734583631872096, -2.4640896055996544, -1.6591841162859413, 0.25367747247541694, -1.4196611190485922, 0.09072377663916645]], "b1": [1.0654459550788238, 1.1336469267996452, 0.4197003647998536, 0.10295389769791412, -1.6913686678902304, -1.8549015893238077, 0.22073355666337177, -3.128433762564366, 0.838984204804599, -2.169294081194432, -1.2595217600997441, -1.139310535811951, 1.1871264425223464, 0.020986601658254677, 0.7103224204477792, 2.4682239099778576], "W2": [-0.945255063490656, 1.4633054342923772, -1.4235682379354537, 1.5780796607083956, 1.5837227533163134, -2.429292582957503, 1.5480442673331911, 2.5089981320397907, 1.4136803306782024, -1.0328945626538373, 1.5844820925305843, -1.6305520784246648, 2.037369519064223, -2.369840480868493, 1.5333313400422297, -2.3550424035973516], "b2": -0.49817443268401623}