{"meta": {"dataset": "IntelliRehabDS (IRDS), Miron et al., Data 6(5):46, 2021", "source": "https://zenodo.org/record/4610859", "n_train_reps": 2062, "n_test_reps": 462, "split": "subject-wise (patients+controls stratified)", "ensemble": 7, "features": ["rom_deg", "duration_s", "peak_vel", "mean_vel", "reversals_ps", "jerk_rms", "tremor_ratio", "t_peak_frac"], "label": "P(clinician labels the repetition as correctly executed)", "test_metrics": {"accuracy": 0.7727272727272727, "balanced_accuracy": 0.8100714749837556, "sensitivity": 0.7604938271604939, "specificity": 0.8596491228070176, "auc": 0.9003248862897986, "n": 462}, "train_metrics": {"accuracy": 0.8758486905916586, "balanced_accuracy": 0.8711800961631546, "sensitivity": 0.8796992481203008, "specificity": 0.8626609442060086, "auc": 0.956274807189648, "n": 2062}}, "norm": {"mu": [44.175925115618064, 2.8404300032331076, 186.4406902115867, 35.8326855519356, 1.671386646494378, 18.203641586987985, 0.4148450315716085, 0.5135346588351413], "sigma": [38.25688566660155, 3.1211424341093745, 126.2400157832497, 36.167499567004654, 1.1990674014293818, 7.822477969029094, 0.10970674396786645, 0.24760742461201052]}, "models": [{"W1": [[-1.8804200613152275, -0.2199135421102135, 0.24754121831903214, -0.7133600803492988, 2.180466105067413, 1.1058476745680033, 0.5176544106485667, 2.07595863916159, -2.176926542900681, -0.9415320068286005, 1.687085265970206, -1.721697131456489, 1.9519228722522113, -1.6944187866224298, -2.3520138040606295, 1.0485001525257478], [-0.5244007516290994, -0.8629562483511477, -0.5210175065107708, -1.108933304586155, -3.1816338397668993, -0.4714200682317505, -2.1921043522174117, 0.1844412000811288, -1.3242498334379451, 0.48442970995312284, -4.309926743950085, -0.29206214347728304, -0.45823859079986456, 0.5086571617226956, -0.19403166818338852, -0.7177217384791813], [-1.4130730461771817, -0.3887120473575799, -1.6652543886126794, 0.024109471342369154, -1.1528104698763484, 0.31387963637432825, -0.7825507112011627, 0.8520958482318932, 0.14547763089681776, 0.42649113871760674, -1.4174162405848, -0.17147242161777285, 1.3591532274554723, -2.6674134844307904, 0.125009176142179, 2.7192813418826143], [-0.32309978258530014, 1.137380870670228, 2.8500810860832426, -0.21381008103168125, -2.126188152799765, 1.2456251264223694, -0.4303934643296631, -0.46655223636790744, -0.9655752250035881, 0.7222194580005781, 1.1883945378061236, 0.7160066850481633, -2.041715438039216, 2.047256527929383, -1.4431758322420003, -2.2987922637479], [0.6374062166813448, 0.5896989744637038, 0.05251834034827135, 0.4183255692557335, -0.7633019619355523, 0.09625733072576621, 0.3245313947969099, -0.4175206247893848, -1.3785076278186106, -0.8054991217947806, 0.5869995856733106, 0.8062641299620471, 0.6408415901187139, 0.4827826570754156, 1.4910350457369759, 0.45652377199111654], [-0.7141893727466005, -0.8181145560863732, 0.7976783202072797, 1.671797491592246, -0.7452793118214378, -1.3817517948286795, -0.9805264478162768, 1.277962491926528, 0.8655514819746923, -2.4384649339355566, 0.25478375680464815, 1.3066415842774601, -0.8826758554883856, -1.053557205548074, 0.06927215621504651, 1.6540018674445527], [-0.36437272490346895, -1.9730110439198487, -3.7918760420993407, -2.1245160321433336, -0.2476612804445083, -2.3030453986378223, -0.4706927178073831, -0.26759811074516104, -0.560545117954454, 1.496343760324761, 1.9683541136174187, -1.465307222311319, 0.8223953302466479, 1.5972235240280708, -0.37475411300054395, -0.19357620665708525], [-1.060612121690662, 1.2865141628414938, 0.4954313999084756, -0.00980928528711636, 1.4919829825961632, -0.5934841713459517, 0.11534902038937735, 0.027705907326328626, 0.18993004479329942, 2.3598230104516005, -1.7734583631872096, -2.4640896055996544, -1.6591841162859413, 0.25367747247541694, -1.4196611190485922, 0.09072377663916645]], "b1": [1.0654459550788238, 1.1336469267996452, 0.4197003647998536, 0.10295389769791412, -1.6913686678902304, -1.8549015893238077, 0.22073355666337177, -3.128433762564366, 0.838984204804599, -2.169294081194432, -1.2595217600997441, -1.139310535811951, 1.1871264425223464, 0.020986601658254677, 0.7103224204477792, 2.4682239099778576], "W2": [-0.945255063490656, 1.4633054342923772, -1.4235682379354537, 1.5780796607083956, 1.5837227533163134, -2.429292582957503, 1.5480442673331911, 2.5089981320397907, 1.4136803306782024, -1.0328945626538373, 1.5844820925305843, -1.6305520784246648, 2.037369519064223, -2.369840480868493, 1.5333313400422297, -2.3550424035973516], "b2": -0.49817443268401623}, {"W1": [[-2.2210105138650884, -1.8316642472389404, -0.4918285713486748, 0.6095506311979237, -0.1479677663620893, -2.1924364749213887, -1.1324822567933501, 0.030277159150367047, 2.525955763828724, 2.7996968978730523, 0.1963501763778229, -0.3364044095140405, 0.6947244745509115, 0.6799377505165779, -0.02358309556370025, 0.6754691698173895], [0.949216616878159, 2.219564679681219, -1.0754807101535813, 0.09962101024212763, 0.44548877340312154, 0.2634349994319482, 0.6846215267347401, -0.3296469957461882, 0.7093259314010683, -0.368153059094323, -0.3135327220723756, 2.2285418566362196, -0.5545096531284696, 0.4260251147532756, -2.642081158952136, -0.3019649600813298], [0.42875299925026916, 0.7286492384875003, 0.5710503271377139, 0.2517214667073956, 2.8189028271699557, -2.061673182281366, -1.701258556345198, -1.871933095753415, 2.447317413512569, -0.2515849887424135, -0.5498944131220115, -0.0005992823513201841, 0.33046543005511125, 0.6416554033581975, -0.037527306021456944, 0.17155653046827463], [-0.8319931409526347, 0.291895562723482, -1.0951039180788986, 0.09167043341733175, -0.44925615103205413, 0.7702476639474748, 1.3522305114066748, 0.15799421932096713, -1.1853307366818258, -0.029119368974170307, 0.633962724802237, -2.2603964571961175, 0.08105746336781061, -0.061633924961606114, -1.5980945944341218, 0.21041769298166166], [0.322602318638577, 0.04634936170998871, -0.6689962020537809, -0.11625161206152136, -0.5640643698509608, 0.5742302413595995, -0.37148670420157154, -0.20397398316715082, -0.534928209859462, 1.7622555494983132, 0.16776460209740957, 0.23483947192390925, 1.5691060890387662, 0.2627607509386165, 0.5019135202583102, -0.9579718538892461], [1.1227639523957014, 1.284029249846068, 1.1286801034509604, -0.42247388207766545, 1.5121768009441157, -0.7258964979629635, 1.4967133927733485, -0.8208158954202632, 0.2711388446387278, 0.3807937947905833, 0.4742143028435454, -3.020080271090496, -0.6660798487316811, 0.9151657268343597, -1.1223689116336748, 0.5814981834572107], [0.1475319171747329, -1.184984443101228, -0.5651672787251079, -0.4304969264213481, -0.1685299779948048, -0.7237810836287323, -0.7250123946390923, -0.4250285894192453, 0.980263116655879, 0.590269411324559, 0.09859141361949132, 0.26511622668106527, 0.6916823729340845, -0.29910848125429446, -2.7179535434246103, 0.461393897638485], [-0.3041357247293726, -1.6059927519039825, 0.3167665905875866, -0.3014757130440822, -0.36080750230788144, -0.9846202145151595, 1.1324890104522805, 0.1517592516728326, -1.0497902771223986, 1.9176372990240762, -1.6943398035107522, 0.3581454360500638, 0.6429939401441793, -0.33198774929371805, 0.23965073299584513, 0.23800959748283224]], "b1": [0.3962200444684767, 0.13618909681821578, -0.026780874651658054, -0.36637178576643104, 2.086025033503679, 1.3914566779557833, -1.1798896741940328, -2.353348504691086, -0.8295562118774714, -1.683925234659493, 1.0507914276266097, -0.10049972757942661, -1.2520285138426432, -1.6462698892788228, 0.8498144100355366, 1.2127395076378666], "W2": [2.695444635347256, -2.132570980859004, 1.8877932724459576, -0.19737175700978635, -1.6837363007716382, -1.1390950505548687, -2.1181942142197103, 1.2719865796370409, 1.4391580462104427, 1.4277819887328944, 1.9233139223106306, -1.183021663632319, -1.4884296063689268, 0.618939158588262, 1.5810225195460574, -0.5771309131496207], "b2": -0.38818532783258286}, {"W1": [[-1.0836601389932534, -1.6641139953980717, 0.2528340222631841, 1.4605915043472013, 0.8841171669141688, -1.7433998532571957, 1.4561734049332462, -0.6140727330875658, -0.7344306897266553, -0.3750433607349267, -2.141631559500874, -0.3648721744382074, -1.194539325662224, 2.2929167915078312, 0.0961011954953232, -0.11644234926585227], [-2.0961459952514745, 2.816657963656921, 1.3675050915365168, 1.4192237576739397, -1.3137346165359538, 0.5406285490397031, -0.47766344357210405, -0.1094375590764805, -0.3745678669228885, -0.00038006584196129134, 0.5771957564250286, 0.5530871579490488, 0.7242576318622108, -1.5338803191486237, 0.5787811512373655, -0.3616271614603325], [-0.6591005869049471, -2.333566897321476, -0.7843460900384046, 0.02397599917502199, -2.3973918175628746, -0.2241081102882303, 1.5661943080374938, -2.076220653651167, -0.3283017211503897, 1.7523841837792877, -1.7735450698406008, -0.7184951248509963, 0.28999327324231355, -0.7398109544299234, -0.7578175101543951, 1.2583495059631962], [-0.44743439039892974, -1.4340313439909897, -1.062951592030037, 1.5287322823069855, -0.40523480667597556, -1.326558140356676, -0.9579612222948077, 0.03745387445948811, 1.373123911280351, -3.2949862088320447, 1.6606979412860265, 0.10208963844102896, -0.021858047199516704, 0.578633304887638, -1.4380073225644197, 0.9497731199154078], [0.13779046238204215, 0.13250142633179435, -1.9873767597853258, -0.661446013074992, 0.5765945598683172, 0.637898537268867, 0.6815271882729742, -0.35169044254129767, 0.6057559283715258, -0.07293967993375931, 0.46803855471035366, 1.3487785436344968, -1.1240694081581641, -0.09671285327900872, 0.12030364417277276, 1.262798540711221], [1.5037657462215754, 0.46102642750021233, 2.0155181540421436, 1.7229086290922233, -0.7570438761281237, 1.217820168591537, -1.41775254191712, -2.0485318109794335, 0.6648996045721572, -0.7719357230432493, -0.9440284327921681, 1.4390735106762238, 2.140081920219833, 2.542097548596314, 0.9310728716586452, 0.4913481682927252], [-0.7496029769920274, -0.164226694548453, 0.034272366857142175, 3.3019992999009857, -0.7032188797906894, 0.16766294700994655, 1.232038272013164, 1.0291005175927441, -0.24685223715818588, 3.6208679269550412, 0.28751024395475294, -1.4005110104545695, -1.1886253294380076, 0.6616188610024807, 1.038719906611388, 0.5263726901956658], [0.5105807137803348, -1.7783800115765283, -0.4988641738433292, -0.42712750549883977, 0.35831054616336194, -0.7150963854570506, -1.3177550300302003, 0.9530919472733441, -2.097034470254369, -0.7182194476400039, 0.26268327230745253, -2.906307637538388, -2.571771952738621, -0.11611940554181445, -0.014422844339782713, 1.609409226406307]], "b1": [0.33355787641688767, 1.8332273756648838, 1.1170189912280535, -1.717237508686789, -2.2342958068723404, 0.2728739793890565, 0.8346283817012304, 3.479726956613489, 0.7538680177631913, -0.39966519386249294, 0.9083542038795577, -0.6266736223074537, -0.6621279133817201, -0.2906137264766582, -2.198743383286161, 1.535262703751111], "W2": [1.6782748502844125, -1.5256914007890467, 1.533542805242185, -2.3390191045426905, 3.1351050322415333, 1.5636127414095575, 1.5429177926440742, -1.3880023508746375, 1.843785900288467, 1.4781731100445312, -1.910661316186473, -1.7763345710293246, -1.4497480581849531, 1.9990767379430108, -1.5596706197467032, -1.1982310313157045], "b2": -0.4667114329086633}, {"W1": [[0.033762198780449046, -1.402779182018773, -2.8984149420554517, 0.10360222675545384, 2.4321736033959094, 0.6785734100365347, 0.8455706119005487, -0.04870621227957549, 2.343802139160084, -1.3405990589718464, 1.8033177776835965, -2.064676056621567, -0.045303233881057996, 2.013165716933007, -1.5189700325723279, -1.5526047194716548], [0.1912411899621237, -0.5282226333286589, 0.6019250023205377, 1.549103843631948, -0.2587929453007344, 0.7454826277492387, -0.4097934247364669, 1.8549720582862563, -1.0388753171928238, -1.9297222657239226, -1.2274431158672323, 0.560988442514278, 1.8489650553355172, -0.7711617663770013, -0.882543815300259, -1.1225972644610138], [2.139704732528356, -2.1013026104380925, -0.14005044621800394, 0.27494425769213016, -0.27862872273487016, 1.0602871628566441, 0.6303425679658844, -0.48545344647064853, -0.558265426521692, -0.46202159638839846, 0.44874922852891946, 0.15591138806685723, -0.07277886663147236, 2.668525487968839, 1.5466865347117837, -2.341535141158909], [0.014535530767228579, 0.897534509663523, 0.22864336338917052, -0.2212079696516527, -0.02387945561698043, 0.5693522028307711, -0.838320702974573, 0.9780893060488859, -0.7132478178987639, -0.9554597682486424, -0.43042619044281744, -0.5235063381516049, -0.5376894960684518, -1.7414570080492868, -1.6702689431908602, 1.1050011482729662], [-0.6691789528941271, -0.9031125820430439, -0.7922867037110793, -0.33334293769060397, -0.7425214497243814, 1.1670905840882997, 1.5200483306641244, 0.006684301363453073, 0.8794995611587365, 0.20004322539584574, 0.29634283556202196, -1.808920187910442, -0.2416871775601982, -0.8439912799250894, 0.27449164781312074, 0.3130338133695875], [0.8468807656188615, 1.4486971669053046, -0.8449206304666212, -0.01504679287196758, -0.8988054408808047, 1.9938560837551034, 0.9394418199563577, -1.2109712348960702, -1.7516514036128572, 1.6236743294301599, -2.3790530619652888, 0.9193550858756379, -0.4120023490567525, 0.9824556364155567, -0.775064842526504, -0.4043031853046093], [0.5295921549935695, -0.26163179738453207, -0.7339830672537659, 0.7937803320494439, -0.14032392895258033, -0.48012490554837634, 0.11594865541289355, -0.852603400510575, 1.5120013941985098, -0.3782726288383692, 2.3448431603554925, 1.1229218277509767, 0.06190358086370529, -0.013154938428976205, -3.1590632238880603, 0.13064684754949332], [-0.11460401431504091, 1.1326001709060594, -0.9361141016876555, -1.8675178187661676, 0.9658346776828294, -1.200353926127738, 1.950653744898675, -0.1606276931964139, 1.9148045314660214, 0.5686331797212779, -2.1984082946934245, -0.6628656288839314, 1.1158700463025508, 0.09417591801162252, -0.35798070544982663, 0.9416237349092449]], "b1": [1.7272543145583747, -0.7309079498647647, 1.2599097888838648, -0.18023546972907284, -1.1094579702328065, 0.8600492223399531, 0.6697215624372641, 1.539809378670533, 0.7009324815295571, 0.00686627706488756, 1.1915899898795315, 0.5105974138519914, 0.2041585863452761, -0.27524197769154995, 1.6460305279676926, 0.6170099087145231], "W2": [-1.9159923392063665, -0.834214707378702, -1.9774210547933184, -2.1076609413614733, -1.3362746736785267, -1.492962535360875, -1.6848099802851475, -2.292936350535777, 1.4332778667725627, 1.7697288818888606, 1.6773966587354892, 1.5449383719570864, -1.6013078296770606, 1.4599415084118488, 2.5549838115464487, -1.1075358207139847], "b2": -1.1489244084117107}, {"W1": [[3.459132115279133, 1.2607767973650752, 1.000281237657461, -0.8940109945187816, 1.3607770213935277, 0.9659603793099044, 0.290295896157556, -0.01809557408619832, 0.9837074486256604, -0.3398786903696615, 2.160709212597923, 2.4783935808852324, -0.012899075699269945, -0.6381765530443841, 1.1878446649573895, 0.21249051539507113], [-1.3085009560380705, -0.5731584622945648, 0.13878938255266746, 1.9875062568220958, -0.43033135258950966, -1.4658177629044227, 0.9097601967231685, 0.29262851836224985, -2.2181429765518206, -1.6897565371406627, -0.48674432949081947, -0.741368594146556, -0.9916115709663965, 0.7723485192955751, 2.0930206162797624, -0.11733015684282343], [-2.2957056305417294, -0.08514097279666288, 0.18193882670284212, -0.7906167493447218, 0.24957166445523216, 0.4072191213186387, 2.126715687072547, -3.3173193864470125, -0.754926806026263, 0.44179633872460117, 2.709730442627069, -2.64992771386057, -0.059052570615756625, -1.9782578463633993, -2.078727956482307, 1.460657308010788], [-0.13491347012847943, -0.9884956499644811, 0.9019021294631643, 0.899007167986467, -0.27750409743048066, 1.4718654306851904, 0.5215520045061554, 1.708193067972098, -1.6972165066488976, 1.692310338637568, -2.0335403970013295, 0.7365628890044587, -0.46164505432766195, 0.9096432460210239, 1.9425544189398987, -1.3911106342423676], [0.3689092782912272, -1.0412380511424382, 1.0879321109814628, 0.2998301094216916, 0.9928204754153785, -0.6670562656836174, 0.5057641291404658, 0.43448395612672996, 0.2005790626467552, -0.09248009713486026, -0.5904226145007506, 1.0110632064298126, 0.3775960606062024, -0.6749298828809982, -0.11999763487696186, 0.016936001567557195], [-0.08607313291191894, 1.6648592783980656, -0.9189669897220534, 1.1258716408023686, 0.5904190704476423, -1.9659794193625717, 1.1239868963857225, -1.2184876703638812, -0.647385523708336, 2.5884995316112462, 0.9710308030987527, -2.2573547910475624, -0.3751228297679101, 1.99480385485796, 0.7712452004186271, 0.17107521787166158], [-2.2390648689641486, -0.5614282545259174, 0.4759402559220729, -0.4109433846322196, -0.40511691346278167, 1.6638090840488164, -0.1327096498006501, 0.36839850755478565, -0.34586167017332176, -0.8815560056667393, -0.03922492908444429, 2.457671447280547, 0.3695959171765752, -0.7520359880571349, 2.9945012379521154, -0.3732900734849406], [1.2579502355012644, 0.5212551616798348, 0.13606688276562434, -1.9068557343316361, 1.5068736557498814, 0.2372361627661046, -0.5945999907929455, 0.4522976081339223, 0.12845785246059754, -0.5246569142083776, 0.012868179448100382, -0.0006587906162644436, 0.03843407423384555, 1.525886478427096, 0.453913757320855, 2.3155876068328602]], "b1": [-0.8902054602696521, -0.1344149042335912, -0.8509984954098242, -0.30623313072428654, -1.3829255049935134, -0.6343090867756289, -3.697438190148031, -1.9569012096098055, -0.1807603184471579, 0.3304260558633129, -0.19027789695849395, 0.11093360495634814, 1.0675535320911844, -1.2460651861262928, -1.0181697767636968, -0.5418355195310026], "W2": [-2.265925494210775, 2.0794179972408267, -2.0127190220404563, -2.5125671026838052, 2.0940746836316797, -1.6427179143426682, 2.068342297123392, 2.40702508177945, 1.5332086898547352, 1.7109086130946147, 1.850990759531924, 1.5852549296810885, -0.419380584801919, -1.896731817985367, -1.502582214165199, -1.819633749712526], "b2": -0.6247870641534803}, {"W1": [[1.1875310876518113, 1.7973523019790951, -1.1238124779832683, -0.5162904853122667, 0.08962562293148288, -1.0488757137482883, 2.535013590431936, -0.6692449477400972, -1.510098270192332, 1.307905597541371, 3.599893324583197, 2.7074327613016806, -1.917896543528215, 2.573535982738108, 0.1423342622850377, 3.336539495219462], [1.8882188616497722, 0.25521277307142076, 0.10024068645576262, 0.07565786911800784, -0.38984426787166293, -0.24816270915705577, -1.1787742926462204, 0.09016444319806159, -1.183343302342866, -2.236194507798298, -1.301557536332437, -0.17830331475015973, -0.9343585479759309, -1.6357967049008946, -0.15056448982868537, -1.1856725381731679], [-0.7315902503103942, -2.778689333106042, -0.44138721664047376, -2.9290368268184044, 0.4829290740376989, -0.582607623277683, 0.21231520398938858, 3.1322570302057917, 0.24184733387138208, -1.4898698123343053, 0.5203603582437344, -2.0268783270793964, 0.6846956041470378, -1.0579841895934226, 1.2100825662872459, -0.09602152216669863], [0.3858047433011382, 3.357941334760797, 0.34193798662992236, 0.7386785590540621, -0.4686572641740882, -0.8848569117869175, 0.876584221446191, 0.12176583454202591, -0.8477757392389517, 1.8558895960906383, -0.040295771343200594, 1.7413829582979723, -0.524152476621786, -0.5775367164553693, -0.15663767466281012, -1.462795410687729], [-0.3897233038529528, 0.23516010947470736, 0.7036575617414323, 0.15249164419748273, -1.3235162128283264, -1.0837252313598436, -0.6370574144600715, -0.5341607479552023, -1.119267895311087, 0.5686426359471861, 0.42125973494699415, 0.4975461770111083, 1.210609585057207, -0.14788390841397545, 0.23950542570707892, 0.5742072652891962], [-0.391770263151468, 1.2049333263815414, 1.524917614037409, 1.0732699870724194, 0.4739887148857633, -1.535213121403124, -1.5973561653800465, 0.7438104855499459, 1.113005047501891, -1.4278007621282367, 0.6021016858949338, 0.5836405690160366, -0.8379163473232611, 2.033818938854212, 0.3360263628579066, -0.9992845246790695], [1.7969810543084095, -3.295230884301652, -1.2410433351612247, 0.2672459632301219, -1.035418539504613, 0.022686424712232773, -0.37392309332697393, 0.5961865569919034, -0.9044039911365334, -0.05572782653473854, 1.0270862669452228, -1.4109390963612018, -0.24841370491270665, -0.2049186384908184, 0.6001774937710718, 2.173493311078781], [0.4359879628268798, 0.4968317094473426, -2.0674006059218146, 1.5407279511203384, 0.7273353528937331, 1.583913795882099, 0.46103305937175026, -0.1509400166271049, 0.17501619869717644, 1.7124288959729528, 1.3769308311379642, -2.0408040369549, -1.211823563906386, 0.2426840518676183, 3.0039696558858564, -1.3873144111462712]], "b1": [0.27541978499933645, 0.6625550693968504, -1.0673513657675433, -0.5627810635075717, -0.06863505170368962, 2.693633049857812, -0.4356279620588132, 2.1208070133742107, 0.8369929793207566, 0.8176756108394092, -1.5689237849996687, -1.5588269917697777, 3.560313648042344, -0.7270071212585953, -0.43820809346922607, 1.0326389092959738], "W2": [-2.4626170879802474, -2.1135171616190465, -1.7537496775467614, -1.7790301072842603, 1.1664970031833657, -1.4173378894571829, -1.8805246835982932, -1.9483178317877812, 1.653289554489557, 2.228443628902068, 1.4667006805425058, -1.2511217503590006, -1.5236630554071282, 1.1789782037490886, -1.4258905883837303, 1.985433564694173], "b2": -0.24189993481344915}, {"W1": [[1.9483143440963673, -2.596744010820187, -0.013386218750124515, 0.00976648019851879, 1.1383577822016693, 0.49533602240449714, 4.325061469254828, -0.8033773771773692, 0.5828496975953237, 0.1543067829367214, -1.1924960625104855, -0.06680646941657783, -1.73823682907241, 0.4459899194724278, 0.5287216689975772, -1.7409095178271998], [-1.067832342132583, -0.3901819291089981, 2.0467992579745293, -0.33978519650607036, 0.5766497087325767, 0.9343907476182305, -0.20321078284917915, 2.1368938495770005, -0.21989763537967252, 1.7093520540626783, 0.06346726416512391, 2.1948761336267144, -2.587521303182109, 0.4702796096316358, 0.8122566190324185, 1.2062440661474123], [-0.6509630579584607, -1.449918277935351, -0.6457314644891499, -0.260513283113986, 1.0660636091454967, -3.5499471199647252, -1.9935501712362216, 1.075390257058666, -2.2914489784821166, -2.1398908461013555, -0.4675613351359311, 0.3467487372553446, -0.6920620022831919, 2.017391824841268, -0.4473155569105816, -0.9639455978706202], [-0.812619405134259, 0.36526568973312046, -0.8438771741105756, -0.5419465383623737, -0.7281440304959691, 1.588056167236651, 1.5769920570702354, -1.7723167944850566, 0.510545233534571, 4.193022176743004, -0.10410332472117129, -0.8021132093673692, 0.1005957048485561, -1.2652234868370162, -0.8760374625432481, -1.3051672716886282], [0.8621737998634886, 0.7106457324095942, 0.3276319059786948, -1.149629693780061, -0.3259245435648026, -0.47708981461819444, -0.7858771348379101, -0.37329376286005755, 0.5933330119003156, 0.08437279917949224, 0.6529459518671085, -0.2679719499582102, 0.2668789640284513, 0.056162281481688954, -0.4616116412384491, 0.270652264746441], [1.5314446489018376, -0.5063289389696182, -2.7349052415025863, 0.5207722125378281, 0.3401731844768235, -0.6756840931017043, -0.14962768719324487, 1.7148227321006837, -0.921238331892514, 1.0495870580684719, 1.082115898404305, 0.6040117401358135, 1.5851765905718285, -0.5084252247721501, 0.6113496585534599, 2.0652423166428218], [-1.2293766194023987, -1.3312607273731816, -0.15006299897739137, -1.0544963901279454, 0.05576285257530931, -0.32909384375859296, -0.1783738187659119, -0.38106051031047006, 0.28717240279295714, -2.4754822486743002, 2.177830050056629, 0.18312477843813973, -1.0165964274828583, -0.6618245740031403, 2.731633538234166, -0.03676566074329813], [0.72839152976316, -0.9875792403481407, 0.3256583926871379, -0.04164278572589906, -0.41128716661700376, -0.25742976645802446, 1.2012248704597361, -1.440520193744548, 0.11007329442121305, 0.42345415115523755, 2.1923897634005365, 0.729963761395021, 0.6371503388974928, -0.7960402768638853, -0.9520031263446123, -0.6981531367188728]], "b1": [-2.2118286461702916, 1.2175742818601498, 0.5078076373407376, 0.9091557054011833, -0.3765114624833445, -2.4246371978409766, 0.34548607468510617, -0.5870539595167897, -1.5140256983423042, 0.7445338931272402, 2.306762173132827, -0.4629319418082144, 0.18371792498255665, 0.3986463827809119, -3.300162239171389, 0.4272170694041517], "W2": [1.4977491348358423, -1.7799179824800713, -1.1761662887891002, 1.7542905644492217, 1.312376217514976, 1.872871719005255, -1.581679544804286, -2.115717773836304, 1.420316123355891, -2.021866831070899, 0.9942997284137794, -1.6492704779714422, 1.7342721451358347, 2.492370929160255, -1.485767531798663, 1.0015769062446742], "b2": -0.9045487015056342}]}